SVM-light Version V6.02
3 # kernel type
3 # kernel parameter -d 
1 # kernel parameter -g 
1 # kernel parameter -s 
1 # kernel parameter -r 
empty# kernel parameter -u 
285 # highest feature index 
182 # number of training documents 
2 # number of support vectors plus 1 
-1 # threshold b, each following line is a SV (starting with alpha*y)
2.5045971449436953e-009 1:0.016032064 8:0.002004008 13:0.002004008 15:0.002004008 23:0.038076151 34:0.0040080161 37:0.002004008 45:0.01002004 46:0.0040080161 55:0.002004008 57:0.002004008 60:0.0080160322 71:0.002004008 75:0.0040080161 78:0.002004008 85:0.002004008 88:0.0080160322 90:0.09018036 101:0.0040080161 105:0.0040080161 106:0.066132262 109:0.002004008 114:0.01002004 115:0.25851703 117:0.002004008 133:0.002004008 143:0.002004008 149:0.0040080161 162:0.002004008 166:0.002004008 173:0.19238476 176:0.016032064 177:0.016032064 179:0.002004008 183:0.0060120239 189:0.0060120239 191:0.0040080161 194:0.0040080161 196:0.0060120239 200:0.002004008 201:0.0040080161 204:0.016032064 205:0.0040080161 206:0.0080160322 207:0.0080160322 209:0.042084169 210:0.002004008 213:0.002004008 215:0.0040080161 218:0.0040080161 220:0.002004008 242:0.026052104 246:0.018036073 247:0.002004008 248:0.0080160322 250:0.012024048 257:0.0080160322 259:0.002004008 260:0.0040080161 261:0.002004008 268:0.002004008 272:0.002004008 279:0.0040080161 #
